-0.009418
-0.157687
-0.082036
-0.471583
-0.093020
0.035646
0.344759
0.227830
-0.400898
0.228216
-0.083743
-0.331850
-0.482410
-0.432531
-0.196615
-0.113401
0.532812
-0.405319
0.042177
0.223905
-0.091085
0.468679
0.087086
0.121151
-0.470654
-0.336142
-0.412372
-0.502722
0.385893
0.435555
-0.415472
-0.062067
-0.470314
-0.191177
0.013709
-0.493400
0.007610
0.365087
-0.116176
0.151420
0.436942
-0.399505
0.324148
-0.043801
0.241953
0.358813
-0.501349
-0.134505
-0.031928
0.326928
-0.278014
-0.463151
0.334313
-0.286365
0.129478
-0.372979
0.276593
-0.177030
-0.323267
-0.604548
0.325974
-0.179203
-0.433215
-0.453742
-0.036295
0.238635
-0.140571
-0.466590
0.301171
0.051768
-0.209015
-0.096340
-0.439446
-0.366860
-0.380918
0.149334
0.485111
0.406828
-0.327676
-0.117911
0.082831
0.470168
0.116307
0.079233
0.298110
-0.351965
-0.208550
0.408050
0.357741
0.319279
-0.157593
-0.020738
-0.176272
0.313371
0.093006
0.380383
-0.494114
-0.210919
-0.215889
0.386083
-0.274489
-0.089916
-0.346763
0.056372
-0.420070
0.475636
0.133798
-0.163886
0.258446
0.314020
0.290820
-0.244867
0.344762
0.483386
0.382041
-0.287023
0.117726
0.057954
-0.190468
0.144389
-0.069159
0.003567
0.224730
-0.008073
0.058138
0.190436
0.391214
0.070797
