0.094418
0.079113
-0.018566
-0.084227
-0.089343
-0.093619
0.076354
0.054062
-0.074284
0.044928
-0.053147
-0.043310
-0.133385
0.081825
0.113807
-0.119820
0.074076
-0.080778
0.035609
-0.058057
-0.017632
-0.074458
0.030502
0.042741
0.000423
-0.051010
0.013457
-0.037424
-0.094947
-0.077041
0.049889
-0.135243
0.128121
0.111026
-0.133776
-0.046490
-0.079860
-0.033717
0.050041
-0.088548
-0.017156
-0.059738
-0.052171
0.145922
0.076437
0.101546
0.102680
0.051356
0.051546
0.098364
-0.126060
0.050080
-0.183083
0.061285
0.078704
-0.092029
-0.074755
-0.020731
0.051976
-0.106200
0.021103
-0.048464
0.084478
0.078084
0.046396
-0.018556
-0.050721
-0.025323
-0.129399
-0.003805
0.033301
0.012224
-0.010088
-0.010596
-0.130429
0.073971
-0.087270
-0.030077
-0.058125
-0.047474
-0.037362
-0.034336
-0.044800
0.096199
-0.074516
-0.043104
0.092721
0.125379
0.019264
0.088717
-0.079462
-0.055321
-0.057859
0.060351
-0.058182
0.070865
0.068167
-0.028107
0.031219
0.045487
-0.064203
-0.005337
-0.004778
-0.115293
-0.043424
0.095524
-0.002464
-0.033878
-0.012283
0.002183
-0.186359
-0.028877
0.017679
0.125536
-0.178685
-0.046618
-0.092772
-0.155464
-0.019255
0.056597
-0.035991
-0.115488
-0.078843
-0.076869
0.073815
0.066616
-0.011447
-0.053162
0.062405
0.068612
0.038371
-0.161443
-0.011834
-0.000536
-0.028218
0.082319
-0.041137
-0.107433
0.045710
0.045937
0.071200
0.053271
-0.012045
-0.085371
0.049386
-0.067903
0.096639
0.094597
0.014516
-0.070550
-0.014287
0.042679
0.078532
0.010475
0.057073
-0.059405
-0.134167
-0.073599
-0.068617
0.043161
-0.048183
-0.044725
-0.024124
-0.033609
-0.013798
0.109587
-0.015241
0.083215
0.057778
0.116701
-0.069516
0.064999
0.058459
-0.039599
-0.032706
-0.095035
0.038987
-0.003218
-0.020617
0.068623
0.061913
0.031587
-0.000578
-0.022982
-0.112068
-0.043974
0.096942
-0.093389
-0.113643
0.119216
0.060857
0.003462
0.003317
-0.070670
-0.083546
-0.062063
0.110145
-0.013932
-0.083456
0.031624
0.060395
0.011817
-0.042996
-0.043118
0.056129
0.011251
0.070166
0.069700
-0.001305
-0.144623
-0.010872
-0.016861
-0.112708
0.083574
0.013116
0.055114
-0.091638
-0.040668
-0.041125
0.026844
-0.096131
-0.061851
-0.075392
-0.063031
0.131641
0.016270
-0.034649
0.092947
-0.079060
0.058966
0.054649
0.022128
-0.017310
-0.096123
-0.021358
0.071105
0.054094
-0.078730
0.090671
0.002712
0.033815
0.058681
-0.083692
-0.016527
-0.103498
-0.100974
-0.062274
0.030199
0.005180
-0.091248
-0.088771
-0.046307
0.123635
-0.097328
0.075513
0.056663
0.078019
0.058500
0.047457
-0.060132
0.028194
-0.060633
-0.025682
0.162239
-0.097701
0.040809
-0.073346
0.099384
-0.068527
-0.059021
0.016377
-0.021683
-0.046606
-0.164953
-0.022632
-0.088720
-0.079545
-0.076950
-0.008292
-0.049795
-0.131229
-0.051549
0.065665
-0.001106
-0.080295
-0.074306
0.076205
-0.061770
0.067239
0.055660
-0.030751
-0.042620
-0.169128
0.029673
0.018875
-0.054320
-0.042289
0.106534
-0.140649
0.121218
-0.020583
0.065645
0.025954
0.027923
0.092074
0.034559
-0.078036
-0.052669
-0.062802
-0.069437
0.075103
-0.073008
0.094233
-0.074767
-0.041855
-0.139873
0.088610
0.095489
0.086816
0.055906
-0.086025
0.097740
-0.050028
0.027243
-0.058391
0.089176
0.055318
0.047539
-0.110054
0.000559
-0.094782
-0.020294
-0.033641
-0.030341
-0.000313
-0.081913
0.033729
-0.063282
0.112490
-0.148986
0.119011
-0.023553
-0.010695
-0.018377
0.031477
0.103816
-0.084238
-0.062236
-0.117912
-0.081668
0.162607
-0.067804
-0.002170
-0.026159
0.074020
-0.080750
0.072618
-0.000290
-0.004198
-0.065696
0.032994
0.070991
-0.061242
0.092511
-0.047065
-0.038747
-0.036800
-0.166166
-0.104788
-0.014183
-0.123273
-0.051753
-0.112983
0.074929
-0.010612
-0.037369
-0.103237
0.022948
0.016357
-0.099611
0.014798
0.064695
0.080074
0.051058
-0.041918
0.108463
0.113323
-0.027755
-0.068757
-0.071550
-0.088615
0.110940
0.027282
-0.021603
0.025880
0.063688
-0.063084
-0.070388
-0.046824
0.043566
-0.027441
-0.076664
-0.084201
-0.150018
-0.023014
0.079877
0.052309
-0.035642
-0.077964
-0.096908
0.097173
-0.013379
-0.052245
0.007218
-0.050443
0.120241
0.077444
-0.030616
-0.013548
-0.110392
-0.127737
-0.046783
-0.005563
-0.083055
0.017912
0.029826
0.045651
0.106563
0.068017
0.078254
0.012600
0.078699
0.058564
0.044277
-0.098300
0.061739
-0.065319
0.033000
0.046549
-0.147489
-0.048849
0.015676
0.017779
-0.038059
0.058834
-0.037645
0.045236
-0.044913
-0.074494
-0.072845
0.020966
-0.007952
0.009905
-0.041014
0.025038
-0.008556
-0.121618
0.081064
0.033845
-0.062110
-0.030882
0.004820
-0.095437
-0.044460
-0.140283
-0.024529
0.053884
-0.023553
-0.053360
-0.028964
-0.061233
0.120496
0.090903
-0.035866
-0.125326
-0.089664
-0.054876
0.052506
-0.012929
-0.098894
0.061206
0.039059
0.033703
0.046390
-0.048977
-0.082606
-0.174028
-0.092365
0.059962
0.089428
-0.166158
-0.017402
0.125206
0.026367
-0.008063
-0.025921
-0.021339
0.054071
-0.171992
-0.015040
-0.049112
-0.083568
-0.087049
-0.034207
-0.033491
-0.094518
0.027013
-0.155840
0.066523
-0.040979
-0.139284
0.040963
-0.077323
0.066633
0.076242
-0.093319
0.056567
0.104320
-0.077380
-0.062111
0.071314
0.109648
-0.006166
0.029813
-0.086908
0.029190
-0.092893
0.034218
-0.019667
0.047374
-0.038687
-0.038063
0.009619
0.061581
-0.080811
0.045684
-0.133746
-0.080582
0.048014
0.042722
-0.018174
0.083276
-0.019995
-0.111739
-0.019569
0.004780
-0.065409
-0.057624
-0.084174
0.052017
-0.152681
0.052632
0.016773
0.094913
0.026597
-0.010383
-0.009293
-0.108599
-0.014571
-0.175333
0.024501
0.058965
-0.024485
-0.005408
0.108653
0.042369
-0.002223
-0.026059
0.004034
-0.134763
-0.079081
-0.154590
0.130820
-0.036930
0.034558
0.114100
0.017549
-0.024292
0.022491
-0.011717
-0.002914
-0.124298
-0.077332
0.024328
-0.110975
-0.007520
0.004082
0.066737
0.032783
0.029495
-0.095246
0.090822
-0.171417
-0.039179
-0.002641
0.010623
0.042670
-0.034036
0.062982
0.032457
0.010152
-0.109978
0.047551
0.065049
0.022485
0.028383
0.002795
-0.058649
0.092036
0.111462
0.018467
0.147545
-0.095631
0.033717
0.037766
-0.092850
-0.042941
0.017174
-0.039881
-0.043325
-0.005138
-0.021956
-0.000950
0.012113
0.098422
-0.103077
0.085777
0.070377
-0.143369
0.018038
-0.039068
-0.059454
0.154336
-0.089460
0.015068
0.079963
-0.023166
-0.025988
-0.121557
-0.030592
-0.107092
-0.011875
0.090050
0.034729
-0.004447
0.088097
-0.022732
-0.039023
-0.130170
-0.038580
0.079026
0.082092
0.031568
-0.047430
0.123366
-0.061340
-0.010912
0.036206
-0.125458
-0.037183
0.126686
-0.065356
-0.107914
0.095283
0.042672
0.061789
-0.085534
-0.112558
-0.086016
-0.051905
0.068069
-0.117664
0.091030
-0.039753
-0.031612
-0.070927
-0.161302
0.090932
-0.033184
-0.112148
-0.055895
0.039183
0.082640
0.047634
0.077628
0.001379
0.037600
0.031667
0.062392
0.050691
-0.184772
-0.093280
-0.007154
0.133242
-0.071716
-0.073662
-0.149613
-0.156992
-0.077844
0.085736
-0.045708
0.034312
0.068751
0.011163
-0.057714
-0.014838
0.107197
0.041235
0.018529
-0.034435
-0.063863
-0.106638
0.045782
0.047866
-0.102034
-0.036475
0.083463
-0.034747
-0.018036
-0.018144
-0.055367
-0.039796
0.034664
-0.059034
0.059150
-0.047467
0.115578
0.045996
0.021614
0.043861
0.042878
0.012444
0.047621
-0.047045
0.020221
0.112498
-0.065834
0.093255
-0.115598
-0.018042
0.037287
0.133939
-0.157336
-0.136584
0.038235
-0.000251
-0.038086
-0.036549
-0.027617
0.002888
0.004374
-0.039089
-0.042042
-0.022467
-0.085845
-0.111038
-0.046464
0.065037
0.072975
-0.103720
-0.013431
-0.104198
0.108764
-0.109765
0.079132
0.080257
-0.053498
-0.039465
-0.039974
0.048465
0.056589
0.021063
0.064342
0.101981
0.012814
-0.073547
-0.039908
-0.038533
-0.029160
0.114434
0.065245
-0.082182
0.063930
-0.016324
0.006466
0.000450
0.088895
-0.154989
0.038184
-0.005404
-0.044912
-0.094174
-0.014997
0.102768
-0.062168
0.033975
0.057084
0.030881
0.051115
-0.124991
0.015031
0.014920
-0.057049
-0.127561
-0.110484
-0.035015
-0.037720
-0.101409
-0.087061
-0.052228
0.043939
-0.055927
0.166673
-0.102314
-0.006727
-0.050887
0.015469
-0.023860
-0.128144
0.061199
-0.049448
0.092701
0.059028
0.026441
-0.035168
0.037230
-0.037152
-0.093512
0.107839
-0.009034
-0.029634
0.001456
0.005511
-0.039059
-0.006093
0.091248
-0.045840
-0.028782
-0.017866
-0.020413
-0.029197
-0.036270
-0.101839
0.071012
-0.071431
0.027781
-0.014101
0.075690
-0.137000
0.034933
-0.062067
-0.094489
0.068736
0.103956
-0.044942
0.001013
-0.061745
0.023907
0.048274
0.108017
-0.109903
0.069169
0.056269
0.027147
-0.077070
-0.013406
-0.121419
0.033670
-0.063865
0.041302
-0.027305
-0.046004
-0.048277
0.074046
-0.157134
-0.038404
0.121717
0.089977
-0.119254
-0.073095
0.126839
-0.118916
-0.119858
-0.089630
-0.006948
0.077154
-0.092817
0.026291
0.019437
0.069702
0.097257
0.040330
-0.007514
0.029427
-0.086199
0.057737
0.127266
0.074460
0.093560
-0.077276
-0.108866
0.051745
-0.045497
0.060766
-0.046927
0.005512
-0.115238
0.048151
0.046499
0.006454
-0.114366
0.047725
-0.089891
-0.080276
-0.093170
0.054683
-0.001532
0.036139
-0.002924
0.028303
-0.137199
0.041216
0.005445
0.092625
-0.077749
0.052171
-0.174003
-0.082569
0.066405
-0.068003
-0.106494
0.047924
-0.171840
-0.062372
0.010182
-0.112656
-0.039830
0.108002
0.013204
-0.046710
0.087035
-0.120425
-0.026487
-0.032843
0.051054
-0.042531
-0.091662
0.014678
0.037576
-0.010495
0.072556
-0.079850
-0.059663
-0.105175
-0.066781
-0.032784
-0.046920
0.082356
-0.026203
0.123919
-0.194294
0.054260
-0.087917
0.001140
0.027344
-0.013620
0.000427
0.092866
-0.122741
-0.079650
0.015348
0.031360
0.101218
-0.009353
0.000877
-0.076654
0.149956
0.049062
0.026550
-0.086564
-0.064726
0.069117
0.018156
0.023429
-0.047403
0.031799
-0.045860
-0.043097
0.067980
0.093223
0.034921
-0.045979
-0.150788
-0.014273
-0.080264
-0.118123
0.035672
0.063913
0.026833
-0.025666
-0.101828
-0.024607
-0.091898
-0.080597
0.055688
-0.144075
0.134877
-0.201707
-0.007172
0.061240
0.033643
-0.100658
0.091327
0.024746
-0.026174
0.046588
0.011982
-0.053654
-0.058150
-0.015708
-0.055906
0.054708
-0.028301
0.041551
0.062348
-0.074418
0.021421
0.096527
-0.085515
-0.042486
-0.063649
0.006194
-0.032232
-0.057685
-0.091342
0.013367
-0.041288
0.079126
0.134249
0.008445
-0.110971
-0.050901
-0.019766
-0.006508
0.097348
0.033723
-0.019655
0.013893
0.072651
-0.080982
-0.098747
-0.031791
-0.056015
0.094810
-0.048392
-0.034501
-0.130185
0.071969
-0.077873
0.064388
-0.064205
0.123212
-0.076749
0.048823
-0.050756
0.082090
-0.104361
0.037237
0.042549
-0.142059
0.011559
-0.052257
-0.003073
-0.000121
-0.074060
-0.165424
-0.060948
0.130973
-0.025848
-0.121704
-0.000357
0.058913
0.077639
0.019125
0.003498
-0.039084
-0.008666
0.059964
0.025263
0.015762
-0.053309
0.106051
0.029607
-0.138401
0.075240
0.119402
-0.034676
0.012498
-0.025169
0.113822
0.147294
0.097286
-0.020175
0.060900
-0.101827
-0.092222
-0.084535
-0.046439
-0.001382
-0.022658
-0.100950
0.046218
-0.049894
0.025664
-0.019563
-0.042890
0.013244
0.044701
-0.053428
0.094674
0.060374
-0.088788
0.014124
0.002946
-0.087731
-0.072809
-0.075671
-0.085077
-0.026512
0.037640
0.020075
0.040113
0.060897
-0.070124
0.030620
-0.008016
0.102988
-0.001720
-0.036800
-0.082660
-0.035751
0.160822
-0.033681
-0.028841
0.000164
0.072237
0.050591
0.073229
-0.055063
0.043796
-0.106706
0.003949
0.045596
0.007926
-0.080929
-0.024257
0.009397
-0.037666
0.082559
0.051222
-0.000524
0.088601
0.004418
0.075327
-0.000967
-0.092851
-0.019287
0.033739
-0.039989
-0.005195
0.018799
0.059506
-0.036764
-0.072980
-0.020165
-0.045793
0.071390
0.049968
0.109577
0.069289
0.056680
-0.013886
0.050522
-0.110611
-0.098560
0.041180
-0.025220
-0.146946
0.033483
0.046767
-0.181448
0.009129
-0.032155
0.013700
-0.012805
0.059984
0.005211
-0.132907
-0.004485
0.007612
-0.052790
-0.029347
0.034673
0.134966
0.064013
0.024227
-0.017301
0.034699
-0.057473
0.022498
0.063738
0.026450
-0.008501
-0.073423
-0.017891
-0.032499
0.032241
0.010641
0.086936
0.009582
0.039843
-0.004674
0.102916
-0.034336
-0.126695
-0.050338
-0.091661
0.067579
-0.029860
-0.014225
-0.099081
0.048811
0.004737
0.037288
0.033834
-0.090162
0.052446
-0.097396
-0.046237
0.068696
-0.195324
-0.112371
0.025331
-0.014619
0.041932
0.093122
-0.137554
-0.018753
0.046311
0.144501
-0.041317
0.058896
-0.159239
-0.006811
-0.187360
0.006238
-0.139250
0.076770
-0.056581
-0.030704
0.027640
0.009046
0.040479
0.031748
-0.083475
-0.088771
0.082371
-0.016333
-0.049515
0.082390
-0.126488
0.022349
0.135235
0.070346
-0.017683
0.109354
0.031186
-0.087267
-0.100288
-0.060516
-0.213072
0.037815
-0.039907
0.041150
0.076742
-0.078584
0.109602
0.092117
0.007848
0.111366
-0.095056
0.086734
0.118999
0.161179
0.164770
-0.057287
-0.010296
-0.030340
0.044348
0.020979
-0.108299
0.079299
-0.044560
-0.057773
0.008716
-0.064364
0.063193
-0.054420
-0.004772
0.128654
0.012283
-0.109035
-0.084395
0.084332
-0.069889
-0.036958
0.017428
0.046366
-0.078058
-0.098585
0.018997
0.001859
-0.121675
-0.154103
0.068235
-0.078588
0.139386
0.014046
-0.201494
-0.082750
-0.029582
-0.018454
-0.058745
0.086684
0.090430
-0.008558
-0.003294
-0.050615
-0.003055
-0.063053
-0.002355
0.044741
0.057902
0.057393
-0.133761
-0.098057
0.103868
0.029555
-0.019541
0.029190
0.020730
-0.085317
0.105050
0.114411
-0.052937
0.064624
-0.018333
0.077639
0.112158
-0.094030
-0.057647
0.093209
0.007817
0.027738
0.114010
-0.099117
0.076924
-0.000554
0.147293
0.052611
0.107485
0.095708
-0.046803
-0.018415
0.082987
0.066057
-0.082905
-0.013268
0.034618
0.027237
-0.065713
-0.005071
-0.011573
-0.059866
-0.064795
0.034724
0.063681
0.003022
0.057357
-0.017265
0.081643
-0.118560
-0.103902
0.098822
-0.102139
-0.007446
0.083828
0.055642
0.028615
-0.040155
-0.156879
-0.086095
-0.093151
0.133158
-0.105033
0.096900
0.035646
-0.063429
-0.064647
0.039454
0.036089
0.038876
0.015469
-0.090596
0.050960
0.049051
0.051946
0.045282
-0.050529
0.083214
0.052435
0.033961
0.051225
0.046571
0.068268
-0.073601
0.093109
-0.080901
0.062392
0.085633
0.003916
0.101586
0.024686
-0.072524
-0.045321
-0.008575
0.031162
-0.130654
-0.016253
0.077464
-0.029578
0.090800
-0.104255
0.080424
-0.084722
-0.166070
0.054934
0.039293
-0.077940
-0.046124
-0.095809
-0.008968
0.123270
-0.176922
-0.125315
-0.044924
-0.085838
0.059762
-0.090466
0.082437
-0.103151
-0.067407
-0.092619
0.018394
-0.003504
-0.074290
0.062269
-0.046726
-0.018070
-0.107291
-0.097888
-0.063703
0.042795
0.043852
0.003188
0.040056
0.022516
0.053210
-0.023561
-0.030962
0.001534
-0.021951
0.059307
0.086326
0.000429
0.016635
-0.005734
-0.070146
-0.128507
0.004351
-0.049926
-0.021181
0.098672
-0.014203
0.042661
-0.021279
0.089945
0.054805
0.108965
0.029327
-0.071507
-0.049068
-0.104393
-0.056755
-0.127689
-0.001521
0.058520
-0.070775
0.032011
0.020109
-0.117644
0.056160
-0.128072
0.095721
0.038729
-0.043362
0.001699
-0.080318
0.071871
-0.098377
0.024884
-0.044567
-0.078572
-0.006666
-0.084321
-0.073926
-0.131350
0.035013
0.007868
-0.083632
0.010305
0.027518
-0.059916
0.018754
0.034371
0.121410
0.065259
-0.054883
-0.025152
0.023182
-0.040029
-0.100605
0.110036
0.014678
-0.118447
0.021231
0.083326
0.115307
-0.001742
-0.017575
-0.130424
0.018980
-0.078521
0.005649
0.145438
-0.067471
0.002781
0.028538
-0.100368
-0.055729
0.019195
-0.024079
0.110602
0.015296
-0.087004
-0.012699
-0.119552
0.015909
-0.011960
0.042089
-0.109857
-0.153958
-0.088709
-0.178478
0.023387
-0.078236
-0.109945
0.059983
-0.032284
0.081725
-0.045052
-0.053041
0.054505
-0.144130
0.027771
0.009396
0.008763
-0.049513
0.029039
0.112793
-0.073101
-0.074171
0.091996
-0.000029
0.113701
0.011853
0.055719
-0.063128
0.011333
0.034599
