0.040566
-0.150357
-0.013193
-0.004030
0.004457
0.051927
-0.001593
0.014262
0.030713
-0.011948
0.021261
-0.094749
0.112158
0.001692
-0.152501
-0.098234
0.148567
0.075881
-0.103966
0.033769
0.013762
-0.027300
-0.071289
-0.110635
-0.035939
-0.004012
0.103305
0.092945
-0.023996
-0.041915
0.073133
-0.074046
0.076149
-0.050201
-0.187495
0.100602
-0.025209
-0.075066
-0.055349
-0.159431
0.042779
0.031978
0.031675
-0.017892
0.043515
-0.137777
-0.036512
-0.136244
-0.068810
-0.071063
0.076126
-0.071242
0.076453
-0.111817
0.086265
-0.163041
-0.014425
0.092681
0.011573
-0.065252
-0.024087
0.017546
-0.013056
0.004116
-0.062434
-0.254083
-0.066725
0.027088
0.062772
-0.047098
-0.144234
0.036413
-0.044294
-0.135230
-0.095676
-0.039574
0.058837
-0.026539
-0.085233
-0.072937
0.136796
-0.016755
0.012707
0.121672
-0.095068
0.083312
-0.011827
0.015414
-0.084030
-0.186554
0.094495
-0.057471
0.086468
-0.039356
0.064988
0.013874
0.007802
-0.006054
-0.048006
0.075208
-0.097746
-0.064231
0.139003
-0.076493
-0.067319
0.109873
-0.107087
0.031472
-0.060384
-0.030387
0.054962
-0.121936
-0.020669
-0.056315
-0.045054
-0.096098
-0.071229
-0.089265
0.067632
-0.156306
0.013265
0.039912
-0.080449
-0.170637
-0.051488
-0.049973
0.077318
0.070687
0.146401
-0.090775
-0.002050
0.025426
-0.044909
0.033307
-0.031961
-0.037074
0.001171
0.090683
-0.036696
-0.062793
0.069769
-0.119875
-0.095331
-0.051804
0.000911
0.031094
0.067105
-0.030185
-0.058754
-0.092616
-0.085548
0.092407
0.062544
-0.149965
-0.004603
-0.052810
0.121140
-0.018003
-0.096345
-0.082350
0.065996
0.068273
-0.074205
0.067704
-0.063114
-0.037795
0.066884
-0.098952
0.135879
0.121839
0.017229
0.100133
-0.060986
-0.107476
0.010371
-0.086557
-0.043506
-0.029081
-0.132403
-0.025226
-0.073186
0.099633
0.060960
0.079007
0.062193
-0.028913
0.025940
-0.177810
-0.018289
0.049430
0.059470
-0.154676
0.103086
-0.069483
-0.063426
0.025629
-0.045626
0.058633
0.132949
-0.043952
-0.034775
-0.007857
0.026942
0.052039
0.063399
-0.043558
0.088074
-0.019896
0.067260
-0.089924
-0.032750
-0.141261
0.038809
0.023944
0.043918
-0.012338
-0.027483
-0.037538
-0.196899
-0.040601
0.099269
0.019671
0.066764
0.115836
0.024809
0.091772
-0.102997
0.068495
-0.138264
0.025587
-0.046315
0.069368
0.089297
-0.082450
0.071407
0.072070
-0.060008
-0.093894
-0.049404
0.037054
0.011293
-0.180409
-0.117645
-0.037512
-0.037169
0.051869
0.056532
-0.061498
0.090855
0.131486
-0.006482
0.014092
0.025037
0.024399
0.064903
-0.102067
-0.010971
-0.044585
-0.136554
0.039694
-0.035304
0.026813
0.030053
0.008737
-0.010088
-0.044768
0.080651
0.102762
0.080250
0.074709
0.018985
-0.045641
-0.019427
-0.049470
-0.076176
-0.127217
-0.009214
-0.003882
0.094755
-0.050384
0.014592
0.029624
-0.145600
-0.053277
0.003226
0.040180
-0.068652
-0.061864
0.102057
0.009888
0.021305
-0.061917
-0.101414
0.040654
0.010102
0.062474
-0.005523
-0.022890
-0.083883
0.078196
0.081951
-0.094158
0.063611
0.095298
-0.044068
-0.150873
-0.068566
0.130588
0.029077
0.061456
-0.132395
-0.070107
0.103878
0.174776
-0.041889
-0.036433
-0.073756
-0.043937
-0.068156
0.102382
0.049567
0.070627
0.045893
-0.068392
-0.037060
0.045876
0.058309
0.106064
-0.086075
-0.088456
0.017472
0.012079
0.015369
-0.044551
-0.113672
0.004727
0.033845
-0.006399
-0.033527
-0.000540
0.056306
-0.025868
-0.070970
-0.033532
0.027814
0.131529
0.151306
0.052879
-0.038804
0.020994
0.001075
-0.052669
-0.068266
-0.011501
-0.184999
0.093346
-0.107002
0.003864
-0.105564
-0.051710
0.015425
-0.011633
0.026939
-0.055026
-0.013436
-0.121340
-0.044850
-0.140997
-0.108085
-0.056654
-0.074763
0.029005
0.001181
0.010661
-0.064695
-0.023003
0.088121
-0.080168
0.003532
0.052995
-0.042878
-0.047106
-0.024341
-0.099517
0.077111
-0.041659
-0.047862
-0.159606
-0.018192
0.015596
-0.148807
0.058702
0.111321
0.028972
0.017860
-0.071554
0.031724
-0.075866
-0.053347
-0.053943
-0.061169
-0.016660
0.050701
-0.030638
-0.009348
0.014356
-0.035204
0.024334
-0.032818
-0.049346
0.060992
0.091955
-0.044343
0.038667
-0.064872
0.083241
-0.008805
0.136035
-0.083588
-0.012215
-0.032226
0.055179
0.033536
-0.032903
-0.037524
0.002028
-0.046619
-0.050133
-0.004019
0.045053
0.015631
0.057403
-0.139452
-0.003641
0.078161
-0.113692
0.088253
0.058192
-0.094498
-0.019626
-0.024642
0.050452
0.061726
0.037981
-0.053606
0.031981
-0.030630
-0.075016
0.049248
-0.037114
-0.041715
-0.011139
-0.003299
0.022478
-0.098782
-0.066560
-0.001013
-0.005201
-0.021472
-0.015447
0.108082
-0.067630
-0.045273
0.126853
-0.086472
0.009242
0.068746
-0.015205
-0.019096
0.003449
0.016289
0.064718
0.048658
-0.066164
0.060172
0.148523
0.030820
-0.040658
-0.133457
0.085880
-0.003861
0.040650
0.087083
-0.030199
-0.073498
-0.122614
0.019265
0.008283
0.098004
0.069071
-0.167802
-0.041995
0.048920
-0.045666
0.029821
-0.001564
-0.104672
-0.080485
0.082158
-0.078299
0.047216
0.078328
-0.044694
-0.118779
0.063328
0.057948
-0.072714
-0.031854
0.031971
-0.049730
-0.028225
0.008647
0.022700
-0.147432
0.071700
-0.114483
0.013171
-0.022136
-0.057071
-0.102190
-0.063572
0.081881
-0.079188
0.139986
0.023909
-0.047905
0.012030
-0.087034
0.045000
-0.067158
-0.106831
0.008621
-0.054896
-0.149954
-0.039769
-0.010451
-0.037786
-0.030330
-0.110509
-0.094211
0.000560
0.085273
-0.086011
-0.030725
0.109022
-0.028360
-0.071439
-0.005644
-0.110183
-0.002896
-0.011605
-0.124785
0.073182
0.070279
0.062894
0.002863
-0.046050
-0.058016
0.066315
-0.003152
0.004487
0.011347
-0.075665
0.112252
0.045973
0.129474
-0.062654
-0.094483
0.024570
0.129021
0.001421
-0.071215
0.030417
0.099030
0.010569
-0.099390
0.146499
0.020082
-0.018780
-0.215436
0.039931
-0.143106
-0.051827
0.008258
0.054379
0.082985
0.083228
0.137168
-0.044741
0.079051
-0.029514
0.071652
-0.061470
-0.018880
-0.080799
-0.099672
-0.069381
-0.113003
-0.059632
-0.024524
-0.079792
0.053919
-0.136441
-0.123437
0.064440
-0.006159
-0.030202
0.044376
-0.054794
0.022022
-0.042793
0.010511
-0.183394
0.005832
-0.033001
0.022213
-0.011247
0.040606
-0.018066
0.063022
-0.083612
0.002114
0.047535
0.031229
0.103451
-0.024397
-0.103188
-0.008592
0.042762
0.080129
0.081046
0.050860
-0.040818
-0.034571
-0.091623
0.022098
0.108119
0.015529
0.007925
0.064223
0.003821
-0.032008
-0.040315
-0.031562
-0.052487
0.094679
-0.093881
-0.018603
-0.052101
-0.082613
0.010669
-0.030272
0.047619
0.048368
0.007779
-0.035501
0.006873
0.061398
0.075690
0.079631
-0.117198
0.028438
-0.132902
0.069442
0.051430
0.072355
0.048205
-0.036609
0.105948
-0.131477
0.053717
0.063428
-0.094303
-0.053023
-0.021534
0.026746
-0.029588
-0.118761
-0.036166
-0.108226
-0.073981
-0.085371
-0.050471
-0.038969
-0.110373
-0.156600
0.057660
0.097257
0.057916
-0.071392
-0.013240
0.041949
-0.059996
-0.061068
-0.060310
-0.156271
0.065559
0.013289
0.042697
-0.070818
-0.137120
-0.007782
-0.027485
-0.044705
0.000207
0.004302
0.121385
0.021747
0.065400
-0.117901
-0.006276
0.078750
0.063323
0.006265
-0.025599
-0.068254
0.042998
0.089301
-0.106859
-0.039875
-0.050123
0.089415
0.098382
0.007396
-0.118475
-0.024220
0.010197
-0.045581
0.008970
-0.006516
0.001329
0.063689
0.064346
0.029433
-0.027680
0.033247
-0.076592
-0.006460
-0.056154
0.091998
-0.138310
-0.110170
0.021114
-0.042083
-0.085622
-0.049559
-0.126955
-0.005755
-0.130951
-0.009995
-0.079092
-0.040353
-0.059893
0.045184
0.047989
-0.122888
-0.073473
-0.117975
-0.131763
-0.027185
-0.006437
0.095009
0.036204
0.008490
-0.062726
-0.074687
-0.083824
0.011115
-0.052212
-0.088667
0.056750
-0.193662
0.069558
0.037357
-0.140902
-0.004332
0.130517
0.023534
-0.083987
-0.068424
-0.117954
0.103866
-0.008988
0.034053
-0.070416
-0.069426
-0.033068
0.096152
-0.053375
0.093560
0.059067
0.097281
0.083646
0.063578
0.073504
-0.077598
0.074614
0.086638
-0.003998
0.009586
-0.111715
0.113017
-0.112478
-0.001994
0.023617
0.072540
-0.048300
0.026101
-0.023861
-0.110082
-0.010688
0.020146
0.084098
-0.052140
0.030774
-0.028386
0.011540
-0.108125
-0.029806
0.004075
-0.008921
-0.106599
-0.064747
0.017276
0.037864
0.099447
0.024924
0.062629
0.136861
0.022358
0.069714
0.029434
-0.041636
-0.010893
-0.113028
-0.022860
0.012498
0.071511
-0.009257
-0.097121
-0.024203
0.051441
0.092564
0.071044
0.059347
-0.011244
-0.060925
0.044572
-0.020304
-0.085456
0.064491
0.019210
0.015743
-0.067240
0.060428
0.067525
0.035586
-0.055067
0.069245
-0.003833
-0.055732
-0.050437
-0.098742
0.059795
-0.016406
0.139036
-0.081016
-0.024078
-0.121986
-0.048115
-0.022987
-0.061250
-0.027413
0.061504
-0.047894
0.016010
0.092547
0.013506
0.039775
-0.099820
0.066992
-0.061797
0.006138
-0.081800
0.064639
0.010600
0.029978
0.089034
-0.024100
-0.068803
-0.098116
0.046038
0.049565
-0.087055
0.057943
-0.043802
0.057057
-0.018846
-0.058349
0.000066
0.033409
-0.130288
0.001643
-0.158095
-0.075082
0.069978
-0.001647
-0.023723
0.090103
0.021380
-0.049891
0.071170
-0.035798
0.063955
-0.128683
-0.069343
-0.026981
-0.063354
-0.037363
0.111180
-0.091273
0.029619
-0.065108
-0.006629
-0.052671
0.083306
0.018677
-0.074898
-0.080770
0.026824
-0.133788
-0.146362
-0.128142
0.117351
-0.030388
0.064335
0.063880
0.058658
0.027582
0.056646
0.075311
-0.031370
-0.097735
0.004354
-0.060810
0.048243
-0.191456
-0.098008
0.045784
0.049375
0.090901
-0.158568
0.005079
-0.013000
0.012919
-0.044821
-0.097442
0.018664
0.046670
0.031172
0.150985
0.021447
-0.003689
-0.107839
-0.033860
0.037447
-0.151679
0.071454
-0.043199
-0.017739
-0.027558
-0.099899
0.046236
0.057160
0.007903
-0.104982
0.066775
0.019827
0.069107
-0.026465
-0.069926
-0.030564
-0.004719
0.020390
0.076616
-0.009414
-0.151654
-0.096916
0.033571
-0.143089
0.075356
0.111111
0.061020
0.071440
0.028974
0.007235
-0.105374
0.041660
-0.053278
-0.095729
0.065032
0.073230
0.091976
0.113152
-0.008904
-0.133444
-0.056307
-0.171223
0.042454
-0.029083
-0.125340
0.042086
-0.031151
-0.040256
-0.097531
-0.073740
0.084448
-0.085795
-0.011063
-0.053536
0.012064
0.061791
-0.118328
-0.064523
-0.042244
-0.037102
0.062021
-0.014835
-0.026849
-0.109384
-0.127553
0.071117
-0.072527
0.053103
-0.033262
0.102919
0.009547
0.046845
-0.133127
-0.074443
-0.105204
-0.142494
-0.047107
0.096175
-0.015369
0.027969
-0.039778
0.075636
0.097997
0.027001
-0.063472
-0.030113
0.034036
-0.000529
-0.006877
-0.108499
0.038234
0.068563
-0.047579
0.126745
-0.005711
0.040959
0.019950
0.065981
-0.058304
-0.015520
-0.033712
-0.037509
-0.047369
-0.037610
0.006069
-0.042478
-0.110681
-0.123102
-0.169851
0.057062
0.048073
0.073548
-0.011123
-0.104793
0.010436
0.001594
-0.068162
0.037255
-0.075669
0.038128
-0.153357
0.074515
0.009577
-0.024150
0.074943
-0.018576
0.058941
-0.048895
0.086036
0.047530
0.042623
-0.072720
-0.023900
-0.027845
0.062610
0.132490
0.063997
-0.103448
0.086855
0.101129
-0.000818
0.019883
-0.095781
0.092824
0.072084
-0.140178
0.050616
0.080501
0.094298
0.004750
0.012553
-0.033973
0.000050
0.032539
-0.092936
0.032079
-0.000526
-0.047370
-0.170595
0.015672
-0.070953
-0.025514
0.086433
0.022047
-0.061117
0.114454
0.010801
-0.058062
0.035012
0.055061
0.020430
0.023388
-0.063425
-0.027712
0.009184
0.113247
-0.055403
-0.010442
-0.115195
-0.075165
0.019288
-0.031013
0.071785
0.053775
-0.106806
-0.115212
0.130491
-0.101942
0.082957
-0.125010
0.012541
-0.009523
0.038140
-0.041216
-0.042282
-0.060402
0.038398
-0.036048
-0.090270
0.003290
-0.049651
0.049336
-0.028178
-0.076348
0.017893
-0.117506
-0.001431
-0.082482
-0.017295
0.060650
-0.044138
0.051690
0.116849
0.008959
-0.003891
-0.078000
-0.117874
-0.055558
0.001423
0.054364
-0.024445
-0.066721
0.016865
0.007056
-0.059443
0.033947
-0.019582
-0.066999
-0.086400
-0.001371
-0.091638
-0.029135
0.023676
0.019564
-0.106096
-0.003107
0.028730
-0.037903
-0.074324
-0.015781
-0.091833
-0.013883
0.109316
0.101033
-0.089415
-0.025735
0.010492
-0.041284
0.039183
-0.039196
-0.001225
0.032522
-0.139900
-0.196924
-0.071266
-0.048738
-0.091883
0.073923
-0.083432
0.079269
0.092640
0.109771
0.084931
0.078642
0.017840
-0.074063
0.014317
0.039893
-0.062697
-0.110279
-0.057594
0.013533
0.024605
0.042986
0.007687
0.082645
0.006356
-0.078016
0.005932
0.037009
0.166202
-0.040539
0.069053
-0.020567
-0.026024
-0.085272
0.056811
0.007200
0.034516
0.076801
0.109208
-0.040633
0.018489
-0.040634
0.019037
-0.054683
0.089493
-0.036431
-0.035219
-0.062653
-0.027525
-0.045370
0.031394
0.113552
0.045135
0.048562
-0.069899
0.017749
-0.053869
0.026486
0.048461
-0.109773
0.100374
0.086396
0.224514
-0.075963
-0.018108
-0.005526
-0.054997
-0.050306
-0.074648
0.033117
-0.152458
0.002796
-0.070513
-0.044340
0.013624
-0.082168
0.022978
-0.049255
-0.047009
-0.089873
0.016105
-0.109074
0.000984
-0.001368
0.048803
-0.149327
-0.165449
-0.163903
0.005921
0.140091
0.173107
-0.121452
-0.093617
-0.106643
-0.013278
-0.022500
0.069394
0.083471
-0.047033
-0.026855
-0.039099
-0.179885
-0.013186
0.072919
-0.100900
0.063719
-0.033076
0.028816
-0.048753
-0.093243
0.104788
-0.108181
0.037461
-0.061711
0.053004
-0.049067
0.087403
-0.014815
-0.032660
0.104840
-0.134069
-0.033062
-0.087967
-0.039962
-0.062013
-0.170447
0.191363
-0.090169
0.054168
-0.105640
0.034322
-0.145166
-0.209405
0.028340
0.050777
0.070598
0.013391
0.077472
0.003411
0.019099
0.075703
-0.012996
0.068812
-0.015185
0.037225
-0.142770
-0.104208
-0.134609
0.008222
-0.072660
0.059276
-0.017914
-0.123712
0.124317
0.135660
-0.124383
0.000817
0.072644
0.171696
0.163966
0.040764
-0.065497
-0.044445
-0.024042
0.005539
-0.017006
-0.023936
0.042973
0.133537
0.016537
0.054283
-0.018468
-0.028225
-0.032051
-0.018334
-0.125371
-0.116730
0.028886
0.036498
0.024029
0.005662
-0.070229
0.091200
-0.037124
-0.061315
-0.027214
-0.047386
-0.079429
-0.127210
-0.100366
0.215323
-0.075396
-0.028936
0.023113
-0.049768
-0.024756
-0.171444
0.095414
0.042116
-0.028248
-0.041485
0.044648
0.016457
0.160983
0.024563
0.079503
-0.096049
-0.040599
-0.105417
-0.063983
-0.042008
-0.046794
0.046234
0.023161
0.013411
-0.011987
-0.116945
-0.032122
0.060503
-0.010355
-0.073235
-0.049130
-0.057531
0.091941
0.013557
-0.007239
-0.100969
-0.017474
-0.045577
0.120063
-0.009788
0.051542
0.023168
0.091458
0.072192
0.012751
-0.060031
0.048879
0.007642
-0.112423
-0.077305
-0.087680
0.028067
0.008918
0.031943
-0.055417
0.017976
0.050139
0.071087
0.038932
-0.004669
0.027428
-0.007892
-0.038838
0.096067
0.042967
-0.048701
-0.118620
-0.116797
0.004633
0.119912
0.008742
-0.007535
0.014900
0.094967
0.121987
0.088098
0.014038
0.008226
-0.077931
0.006003
-0.045692
-0.114433
-0.120232
0.016452
0.012500
-0.097805
-0.074188
-0.058976
-0.007212
-0.018559
-0.035541
0.041795
0.045456
-0.024463
0.067957
-0.006258
0.004663
0.068636
-0.008080
-0.009642
0.084545
-0.054266
-0.059372
0.071074
-0.063039
0.067139
0.076006
-0.058000
-0.016749
-0.046618
0.077201
-0.075991
-0.178007
-0.030621
0.037075
-0.007234
-0.013715
-0.075053
-0.079840
-0.112081
-0.062864
0.077624
-0.087817
0.019955
-0.086362
-0.136069
0.088147
0.142453
-0.064107
-0.120389
-0.111267
-0.003740
-0.124036
-0.043949
0.007949
0.047014
-0.081638
-0.052615
-0.013994
0.062301
0.041516
0.008803
-0.048819
0.115409
-0.092740
0.004739
-0.069584
-0.071193
-0.012269
-0.057840
0.035272
-0.145810
-0.029663
0.060508
0.117297
0.103410
-0.125566
0.144385
0.109236
-0.039169
0.144512
-0.011688
-0.028288
-0.034941
0.021187
-0.043317
-0.058942
0.008188
-0.118955
-0.031791
0.022698
-0.029666
-0.091950
-0.005142
-0.050164
0.048100
0.053888
-0.096372
-0.067048
-0.017148
0.066776
0.089557
0.039264
0.150967
0.074168
0.060035
-0.005386
-0.104003
-0.077916
-0.018010
-0.150323
