0.026397
-0.027711
-0.094108
-0.079087
-0.146398
0.150659
-0.078928
0.056805
-0.088402
-0.131626
-0.014199
-0.110707
0.040746
-0.133759
-0.005611
0.018644
-0.089145
0.084647
0.105989
-0.076282
-0.100224
0.012204
-0.022188
-0.212991
-0.070412
-0.018821
0.028290
0.008875
0.105501
0.048774
0.009354
-0.147204
0.036505
-0.140839
0.004091
-0.047463
-0.061825
0.028297
0.152622
0.110492
0.092812
0.075669
0.106488
0.050697
0.135413
-0.066151
0.078194
-0.089503
0.136390
0.182996
-0.101888
-0.127504
0.088484
0.040206
-0.083213
-0.051838
0.025175
-0.113298
-0.017566
-0.022393
0.085855
0.141915
-0.108669
0.062266
0.119915
0.059411
-0.004344
-0.028461
0.111671
-0.083627
0.108234
-0.086974
0.053225
-0.108469
0.076351
-0.009920
-0.077360
0.072179
0.003497
0.075630
0.089373
0.016183
-0.096768
0.015987
0.064162
-0.062585
0.012513
-0.087728
0.135289
-0.096734
0.181391
-0.116223
0.124904
0.098365
-0.095980
-0.006514
0.061863
0.029134
0.051714
-0.094356
-0.032735
-0.077675
0.126297
-0.144809
-0.031997
-0.078198
-0.040756
-0.117168
-0.073417
0.039686
0.054694
-0.017496
-0.073812
0.115640
-0.208476
-0.122624
0.124587
0.154490
0.038455
-0.074784
-0.090017
-0.104675
0.107255
-0.113010
0.056042
0.054795
0.059737
0.034111
-0.098208
0.031999
-0.133024
0.076840
0.078261
0.057171
-0.067828
-0.066949
0.015504
-0.059609
0.025649
0.064168
0.122480
-0.077061
0.172130
0.047936
0.001715
0.110160
-0.266553
-0.013998
-0.010514
-0.058169
-0.100017
0.044231
0.072624
0.004674
0.117091
-0.107931
0.076980
-0.067363
0.064422
0.083742
0.047230
0.108515
-0.121021
-0.134756
0.014353
-0.093098
-0.018606
0.110829
0.095882
-0.132241
0.106724
0.009233
0.144255
-0.093205
-0.080352
0.003508
-0.231914
0.145484
-0.046168
-0.082785
-0.072363
0.077130
-0.033262
-0.145573
0.052173
-0.054304
0.103687
0.076064
-0.045700
0.064580
0.045521
0.010709
-0.035515
-0.131642
0.091559
0.113152
0.064006
0.088485
-0.125411
0.107556
0.096005
-0.119207
-0.032601
0.042231
0.038340
0.066479
-0.046236
-0.064160
-0.002903
-0.036210
-0.161437
-0.036865
0.118509
-0.097014
-0.031332
-0.109932
0.110766
-0.010219
-0.047497
-0.039215
0.026633
0.064293
-0.058804
0.057632
0.066833
0.089539
0.101999
-0.037621
-0.036856
0.026128
0.010411
-0.100995
0.012953
0.064652
-0.110048
-0.061107
0.061431
0.118534
0.019002
-0.099488
0.025341
0.141870
-0.107285
-0.078351
-0.049766
-0.091860
-0.017019
0.012347
-0.024796
0.053072
-0.074673
-0.006771
0.169602
-0.031430
-0.147794
-0.020586
-0.122751
-0.095795
-0.008631
-0.102647
-0.115224
0.086037
0.001304
-0.030698
-0.101963
-0.080706
-0.008985
-0.081406
0.082117
-0.061197
0.032013
-0.037304
-0.077671
-0.059274
-0.135827
-0.147010
0.127746
0.148907
0.049454
0.054407
0.053002
-0.151244
0.170790
0.037490
0.011219
0.116934
-0.071110
0.044505
-0.014121
0.040978
-0.141134
-0.011399
-0.051470
-0.116324
0.050410
0.026072
0.081807
0.006237
0.010813
0.119813
-0.096733
-0.057100
-0.020062
0.070434
0.022743
-0.057530
-0.124951
-0.121973
-0.097675
-0.001744
0.113252
0.047479
0.000150
-0.101385
0.061268
-0.006354
-0.005873
0.084931
-0.091430
-0.059161
-0.032436
-0.059813
0.013973
-0.040444
0.073614
0.093647
0.078892
-0.003893
-0.025808
0.063938
-0.079890
0.065931
-0.058184
0.017759
-0.047509
-0.009156
-0.054165
-0.016282
0.136636
0.032353
0.024025
0.022551
-0.107492
-0.014839
-0.047236
-0.002162
-0.003066
0.028883
0.027807
-0.092320
0.057607
0.056591
0.119998
0.018493
0.008052
-0.099102
-0.030649
0.054497
-0.023980
-0.032092
-0.076692
0.114397
-0.069815
0.001666
-0.146688
0.057928
-0.075700
0.010802
-0.037508
-0.033724
-0.023376
0.064292
-0.068138
-0.091650
-0.095149
-0.095530
0.059262
0.070995
0.044030
-0.117841
-0.084571
0.075678
-0.156127
0.115217
-0.000881
-0.077579
-0.054377
0.054066
0.075602
-0.090659
-0.068078
-0.108334
0.035582
-0.072752
-0.017566
-0.095887
-0.010699
-0.096385
-0.147828
0.123918
0.092072
0.142648
-0.080264
0.041974
-0.083691
-0.020700
-0.018595
-0.021194
0.012251
-0.042666
-0.027924
0.031220
-0.019393
-0.068342
0.049792
-0.077024
-0.077573
0.098480
-0.089152
0.102305
0.109687
0.031535
-0.052302
-0.047802
0.031426
0.129630
0.014741
0.120628
0.035721
0.132950
-0.067668
0.044453
0.103175
0.048156
-0.050819
-0.036624
-0.098552
-0.000438
-0.016057
0.090045
0.029503
0.028946
0.017940
-0.001994
-0.035862
-0.050256
-0.059139
0.033707
-0.141278
-0.124795
-0.109343
0.059685
-0.024479
-0.139155
-0.115900
0.033494
0.074186
0.106371
0.038007
0.107497
0.029198
-0.096288
0.086416
-0.049473
-0.036368
0.070492
-0.040423
0.037937
-0.096533
-0.011021
-0.113329
-0.139091
-0.104919
-0.056287
0.116506
0.046749
-0.076482
-0.092732
-0.110884
-0.001690
0.172467
-0.107184
0.070641
-0.056583
0.056484
-0.009392
-0.067571
0.115664
0.049769
-0.007080
-0.037851
0.009013
-0.158412
-0.154161
0.002337
-0.009609
-0.088475
-0.077885
0.133614
0.005957
0.044071
0.078231
-0.075893
-0.114948
-0.093222
0.063629
0.020138
0.004414
-0.163000
0.058274
0.032120
0.023609
0.084134
-0.020157
-0.005585
0.114490
0.046246
-0.044311
0.087417
0.113694
-0.041131
0.105156
0.094597
0.057258
0.078842
0.073917
0.119350
-0.137237
0.088599
-0.031275
-0.013808
0.038600
-0.144547
0.030040
0.006419
-0.104581
-0.045739
-0.003102
0.044450
-0.033313
-0.021475
0.157116
-0.149819
-0.000234
-0.037417
0.060027
0.042265
-0.015375
-0.097721
-0.057987
-0.106250
-0.125670
0.033549
-0.106985
-0.155801
0.094016
-0.038560
-0.107910
0.115651
-0.035184
0.053247
0.019183
0.151048
-0.037428
0.073250
0.142058
0.119562
-0.051983
-0.021057
-0.108546
-0.100128
0.024778
-0.053590
0.010773
0.032318
0.016722
-0.059527
-0.101267
-0.032141
-0.013423
-0.094086
0.033196
-0.064401
-0.061585
0.104465
-0.001506
-0.095112
0.060193
-0.091062
0.125145
-0.090199
-0.098515
0.016336
-0.101321
-0.017140
-0.111160
-0.021103
0.037902
-0.121444
0.088065
-0.040099
0.016845
0.071690
-0.120218
-0.116564
0.087330
0.029172
-0.117369
-0.081741
0.044917
0.094779
0.088176
-0.060561
0.075653
0.020555
0.013370
-0.028660
0.128262
0.057613
0.079983
0.106935
0.006196
-0.115367
-0.055644
-0.030005
0.000631
0.034389
0.140619
-0.020704
0.042984
0.104421
-0.069068
-0.009034
-0.029570
0.170094
0.061355
-0.019157
-0.125507
-0.105430
0.167245
-0.039360
0.163180
0.007795
-0.018680
-0.126749
-0.071556
-0.028763
0.042661
-0.083849
-0.035521
-0.044852
-0.126066
0.100738
-0.150945
0.036172
0.132483
-0.126772
-0.113747
0.128081
0.091212
0.155679
0.148843
0.061812
-0.023365
-0.060425
-0.152293
-0.091181
-0.000133
0.001172
0.005482
-0.071189
-0.132990
-0.076944
-0.091395
-0.098162
-0.023965
-0.137221
0.131535
-0.115558
0.114092
0.118597
0.143024
0.035447
-0.134980
-0.093794
-0.039994
0.028675
-0.084756
0.041550
-0.050770
0.039454
-0.013092
0.055490
0.199830
0.062071
-0.114171
0.055970
0.101111
0.021141
-0.019555
0.113052
0.190204
-0.117315
0.089926
0.110157
0.096448
0.137065
-0.109010
0.076936
-0.050206
0.092579
0.001202
0.098764
0.124345
-0.063020
0.046880
-0.064972
-0.033831
-0.073303
0.106764
0.006356
-0.133677
0.053195
-0.047215
-0.007661
0.087969
0.080220
-0.075520
-0.020511
-0.134746
-0.013958
-0.028880
-0.061851
-0.008731
-0.002665
-0.056326
0.048880
0.073340
0.098660
0.111477
0.046013
-0.088316
0.023044
-0.193954
-0.104616
-0.089773
-0.110549
0.072935
0.015656
-0.044168
0.083032
-0.027003
-0.025126
-0.109934
0.072593
0.034392
-0.027817
0.077879
0.006626
0.087644
-0.038108
-0.012344
-0.082034
-0.066634
0.041472
0.095063
-0.088068
0.168017
-0.001071
0.004991
0.091395
0.001574
-0.039042
-0.105864
0.000984
0.090209
0.018854
-0.019210
0.059733
0.065538
-0.097170
0.037955
0.036461
-0.077358
0.070259
-0.072566
-0.041243
-0.064453
0.021178
-0.099021
0.125565
-0.025899
-0.043535
0.142098
0.137863
0.124938
-0.154093
0.086117
0.060629
0.039521
