-96
-125
94
102
66
-28
103
-79
97
74
-118
85
-88
73
-113
-100
97
-64
-52
104
91
-104
-122
29
107
-121
-95
-105
-53
-84
-105
65
-90
69
-108
120
112
-95
-27
-50
-60
-69
-52
-83
-36
110
-68
97
-36
-10
90
76
-62
-88
100
117
-96
84
-120
-123
-63
-33
86
-76
-45
-78
-113
-126
-49
100
-51
98
-81
86
-69
-116
103
-71
-108
-69
-61
-101
93
-102
-75
112
-103
98
-36
93
-11
82
-42
-56
93
-114
-76
-94
-82
94
-128
103
-41
67
-128
103
123
82
106
-89
-80
-120
105
-47
32
79
-42
-26
-89
105
97
89
-52
84
-80
-80
-78
-92
92
-93
73
-68
-67
-79
109
109
-102
113
-96
-75
-43
104
-16
-84
-109
-50
0
-118
-116
114
91
-86
-71
-108
-46
87
-68
109
-75
-64
-84
-51
80
72
-102
95
-120
-50
-58
73
-52
-105
-31
95
102
-108
19
-31
120
100
106
-68
-128
66
-82
116
-54
-69
121
-75
-85
-104
126
74
-60
-48
-75
-62
77
-51
-58
81
-128
-87
-89
-74
120
111
-112
126
57
126
-45
93
-127
86
-50
-116
120
124
-96
-75
114
-79
-74
-61
-54
125
126
-96
-105
91
-103
-75
86
112
-77
-45
-100
91
-96
-33
87
103
119
96
-120
-104
-124
-81
105
-114
-18
-127
65
-122
79
93
-115
90
83
-63
-110
-127
90
102
-115
101
-65
112
-93
125
103
113
71
65
-40
-29
-83
-81
-81
63
-17
-90
-104
-46
107
-86
-118
-88
69
-116
118
82
-83
-96
-66
-107
-104
-45
93
115
-121
-72
-98
114
77
79
92
-111
-48
-84
-110
90
-77
-114
-113
-64
96
113
-128
113
-103
124
-70
-59
-67
-112
-124
-75
102
-74
114
-101
120
-115
116
-119
-36
-93
-97
-98
87
-118
120
-111
-112
-94
-95
95
-79
-79
-45
-100
-106
92
-127
-80
-123
-128
104
-48
108
-109
66
-79
104
-104
125
127
-123
-75
108
96
94
94
-78
-71
-86
81
100
-69
60
-47
-111
103
116
-81
-69
96
109
87
-91
106
-120
93
-116
93
65
-43
-60
-32
102
-87
100
-122
-120
-122
-104
122
-126
-93
-121
108
-83
104
103
-56
97
-54
-50
-93
117
120
-93
-39
-102
-44
-91
-38
109
-86
-54
-84
118
126
92
-110
-119
-61
-94
-94
-100
-111
126
118
113
-92
68
78
86
-78
-124
70
82
-92
-70
-52
-89
-51
-94
93
-63
119
126
-72
124
-90
93
-116
84
70
88
115
-47
-85
104
95
85
-111
-16
87
-72
115
-79
-115
109
-47
-83
-114
125
-105
59
61
-109
-116
97
103
-37
-107
-86
-67
104
83
95
-75
-99
-108
57
-78
-93
-97
-64
-121
-113
-48
-85
122
-62
-48
123
-53
-59
-79
-67
-70
-45
71
-62
-127
-118
-89
67
-94
-107
89
121
-112
-86
-128
-122
-24
64
-110
125
-77
-87
-119
92
114
88
77
-92
87
61
-59
125
87
-47
127
-81
-100
-28
125
-70
-33
-45
117
-122
86
91
-97
116
-104
-93
-101
113
90
-128
-118
94
-92
111
112
-53
-111
94
-77
96
-42
96
92
-101
90
-120
85
-122
-90
79
-62
124
-101
-71
80
82
-63
-94
82
101
-86
-58
-62
113
-69
-99
-103
-126
-40
-79
-67
-52
-107
83
115
-127
-110
-91
-33
-122
-87
-53
108
-115
-126
-17
-77
-121
77
88
-19
124
-21
-106
-120
76
107
-126
-87
100
126
121
77
-55
63
-90
-38
76
84
-40
-60
-25
-29
-76
-123
113
62
96
-110
-110
-107
107
73
104
96
92
-123
71
-38
83
-48
-45
-32
-91
72
94
124
-95
99
-88
118
-89
-117
-80
-1
-76
83
-80
-55
-99
-121
-48
-6
82
-61
-50
-58
-35
86
-68
118
-60
-110
-56
-42
111
-85
110
127
106
-52
-107
73
-81
120
-114
-62
-66
104
-121
72
-118
-126
112
-115
-112
115
-84
-70
-56
-49
-85
97
-98
40
89
97
85
-70
-102
122
-65
-125
-124
86
-71
-91
-125
-68
-107
-62
125
-117
101
109
-88
-58
98
-18
-111
-108
-60
-109
124
88
-110
-61
-100
-121
-78
-74
93
-90
-90
103
-72
106
123
111
-99
92
-42
-124
122
-33
-35
-42
61
-63
-77
-89
