-50
-60
-125
87
83
80
-62
-77
93
-83
107
114
54
-58
-36
63
-63
89
-89
104
-125
93
-92
-84
-113
109
-104
118
79
91
-79
52
-27
-38
53
112
89
120
-79
84
-124
103
108
-15
-62
-45
-44
-78
-78
-47
58
-79
20
-72
-60
81
93
-127
-78
72
-99
111
-56
-60
-82
-125
109
126
56
-115
-91
-105
-120
-120
55
-63
84
123
104
111
118
120
113
-48
93
114
-51
-29
-100
-53
90
106
104
-72
104
-65
-67
124
-92
-82
100
-117
-116
66
114
-49
-115
120
-121
-111
18
124
-101
-29
23
112
81
39
-126
-75
119
66
90
91
-63
-68
-121
107
-71
-67
-87
35
-121
-113
124
-58
115
71
-82
-82
-65
-77
-121
86
-80
97
-48
-49
-103
96
-123
-84
-60
-106
-75
103
53
94
97
-84
111
113
127
121
-122
-39
-123
-57
-74
-35
96
-69
-74
116
121
79
-87
-115
-127
-67
-71
-92
-113
-128
68
114
-48
80
67
-33
-72
-111
-111
96
87
101
-39
-122
87
-92
-72
-105
114
114
-75
-105
-66
-66
-114
46
-120
-124
67
-57
-104
-76
82
116
115
-95
79
102
92
101
-25
-102
120
-51
90
-73
-76
-98
-125
79
-127
-65
-77
90
-52
-111
-90
-74
87
-124
74
75
101
-93
-109
82
83
112
-30
78
-62
-75
-61
-74
-81
103
-94
102
126
-4
77
-86
94
-46
97
103
-102
-127
112
32
-128
84
90
91
-118
110
55
108
-69
-114
89
93
-62
102
-68
-76
122
114
30
-93
-100
107
115
-41
49
-32
-127
-69
-95
-94
-51
-90
91
108
101
96
-62
94
-50
93
115
49
-53
-49
-55
-75
85
-47
109
-95
104
-53
-76
-81
69
-113
79
-127
120
123
-113
88
-90
101
-37
43
-33
127
-120
-125
-92
-43
87
101
64
88
-4
98
-114
126
-63
89
-64
-113
-116
99
-91
-65
102
-51
111
117
118
31
73
-122
60
108
67
-63
-120
118
74
-98
-102
76
-103
-69
-59
-79
115
-40
-37
124
97
95
84
-38
-95
-127
-96
-70
101
96
112
-84
125
92
87
42
-128
-59
-78
119
91
78
-48
-122
108
-108
109
-32
-61
123
-122
69
57
112
-117
87
-101
-93
-82
-41
-67
-60
-104
-60
-74
-83
77
-71
99
-91
-82
44
110
-102
-101
118
-73
118
-83
113
93
94
-99
-118
-106
116
-96
-119
61
-58
-90
101
122
-110
79
113
49
127
-77
127
107
124
102
-32
-52
119
59
83
106
-78
-122
77
-72
-87
-90
-82
110
88
26
81
-73
-53
32
-125
-29
-95
-118
126
-127
-77
28
-123
110
87
85
120
121
80
-95
38
-68
116
50
-85
91
-68
-62
80
-75
-43
91
101
-65
-39
-117
-93
85
-93
81
-90
-126
-81
117
118
-106
-72
89
-82
53
89
-81
-84
-125
-57
-126
68
-126
-110
99
104
87
-78
41
-78
-102
-49
-95
-120
-119
70
-123
25
-96
-73
127
-117
-40
-84
-114
126
-110
53
90
39
-25
118
-90
-36
-101
127
-98
-121
-115
60
91
-97
69
-118
-110
-68
-91
-93
79
-52
28
117
-115
-106
-84
120
-71
-91
-106
69
-81
-69
-98
-94
-111
104
-51
-38
-101
-14
79
-90
-88
81
114
-101
116
114
-116
-128
-114
-105
-47
74
-55
-66
47
-101
117
103
-9
83
-103
-59
-128
126
61
123
71
-121
-52
-90
-116
-54
-128
117
56
117
-60
-58
-92
111
-30
102
-120
-89
59
118
-28
99
71
-49
-84
-71
86
67
85
108
-67
64
-52
116
122
95
35
-52
121
68
106
-87
-57
-81
-61
-112
-88
-92
-71
-79
19
80
-118
-23
95
94
43
38
91
-55
112
-90
-67
-105
104
-123
-41
-85
-100
120
100
71
-82
-81
75
119
-57
120
-125
-125
106
116
-90
103
-73
111
-35
-82
-98
-83
-84
-105
-81
111
-99
-37
99
-50
65
-125
-88
-23
37
51
-87
-113
118
119
125
-111
-110
117
115
-128
85
69
112
-69
-64
73
-122
73
-40
69
-60
-59
107
117
116
-80
-75
-99
-70
-44
-104
94
116
117
123
-36
-69
88
-70
-124
-109
-113
-53
39
-87
-117
113
80
-123
-44
101
-90
-75
-92
-79
59
-103
-103
105
57
69
120
118
75
85
108
-83
106
-1
74
-117
109
-103
127
57
-72
110
-51
-73
-95
119
-88
118
80
-41
-119
123
-112
-109
117
-117
-52
112
124
-125
-127
123
119
75
-65
95
-94
-122
-62
51
-89
101
80
-67
-43
113
-112
102
-97
-81
-40
69
-66
-75
-95
91
-122
62
-90
100
-85
125
112
111
-63
38
117
-31
-53
63
94
-28
63
63
83
-118
-61
81
-95
-100
-66
-48
-86
-118
-93
85
-74
-27
-63
-50
91
70
-78
113
-72
112
-109
66
-81
-82
-109
66
-81
83
89
81
-76
-114
-89
-115
-94
51
-85
-109
-51
91
-78
26
88
-68
97
72
-81
28
101
-106
67
116
-40
-104
112
-54
62
125
121
-79
115
82
-103
-88
-120
-64
89
103
72
98
121
112
-58
125
-30
13
-76
84
-112
-95
-122
-113
-51
61
90
-103
-92
-45
-119
-112
92
-12
-80
-95
85
100
-67
-101
-97
111
-92
112
114
-67
-50
-89
112
42
-123
89
64
-89
-70
-95
126
75
127
81
89
-76
46
-22
8
-118
-72
-90
75
-52
-96
126
-82
-105
107
104
-123
106
-76
124
-85
-71
93
-99
-48
86
115
100
-109
121
104
82
-104
115
-60
-23
-107
69
109
-126
-117
-48
-90
-126
-104
-64
89
77
122
105
-49
111
120
56
-65
91
-70
100
-30
92
-80
109
-58
73
-88
-84
48
-105
108
-115
-113
93
32
102
-25
126
61
-113
-73
-61
-100
-111
117
-119
-73
-96
-102
107
-42
-93
50
-62
-33
120
-105
126
-36
-14
-48
-126
-72
75
81
86
112
-114
-128
75
-82
110
-96
-126
114
-104
-83
107
-49
-72
83
-103
-111
84
94
92
86
125
-88
-99
-86
-72
96
-92
-118
-44
-114
118
88
119
-5
120
124
-113
-64
-79
-64
106
-84
71
-110
-82
-108
89
127
-107
118
-57
-79
-113
-53
-110
-62
-114
81
-126
-90
116
-116
-100
-73
118
94
-126
112
-65
-79
-39
-66
-75
-122
-79
69
77
-85
126
44
-90
-82
21
-107
121
-104
-122
-73
-109
54
-116
-108
108
123
-90
-22
-70
-97
-125
-90
104
-98
-70
-95
-119
94
-125
121
-91
-106
-55
-106
-86
-116
-44
120
58
109
82
-68
123
-122
77
-80
-110
-88
-90
83
-78
78
112
-67
12
68
-96
-123
-85
-50
51
-126
-82
-16
115
-73
36
-117
17
-109
50
-61
105
122
-94
-107
-86
-92
87
83
-58
-124
110
-58
58
-98
-22
-66
-125
-39
-92
84
76
102
0
-88
116
-85
-61
90
-39
-51
-108
-38
79
-55
-33
-5
-2
105
-120
123
-83
-99
70
-60
113
104
-107
100
-70
107
-116
-27
-105
70
86
-56
96
118
-101
-82
91
77
-100
-112
61
40
-67
90
-19
-103
8
88
123
-125
104
-55
-52
-119
-115
109
-115
101
-115
-83
-74
-74
53
77
-43
-93
-126
-93
-99
86
-42
-36
108
-70
-125
-61
-38
80
104
-50
-108
-94
-36
77
-61
-113
-14
-78
-41
-49
112
-125
-57
-69
87
-122
-90
-95
99
-116
-121
103
100
-90
-70
-111
-74
-125
-58
63
73
-47
74
-118
-57
-76
-94
116
38
85
81
-24
73
-48
-89
100
100
-86
-89
-87
-103
82
-79
-80
-78
-83
109
-57
-78
-90
-79
-82
-67
94
-50
89
-71
-55
-110
-45
-96
94
113
-119
-92
55
-124
-61
123
-52
73
-59
86
32
-76
-87
91
112
79
-119
-30
24
59
113
85
-73
82
-58
74
98
81
-101
-115
93
-71
112
-125
71
77
100
-84
-83
-111
-86
-98
-77
127
122
-112
-128
-73
-55
-113
-102
-117
96
57
-110
110
-127
-47
-122
-84
-127
-53
-76
-40
-93
95
110
73
105
57
-114
-74
96
-91
-99
64
-75
57
-49
-87
114
-112
89
-65
77
-96
113
90
-117
86
93
55
-89
-108
87
-106
-94
103
-100
-90
-31
-69
106
126
-97
116
76
-39
-103
64
-99
-57
-35
-114
-125
55
-100
90
-109
-15
98
-111
-94
76
106
-100
127
-39
-103
85
-121
63
-102
-121
-85
69
40
84
23
-97
91
69
-73
121
-58
113
107
-76
46
-94
-107
-107
110
-93
-37
94
93
-51
-113
-37
-105
-76
101
-105
-90
