-99
55
-128
-123
-118
-93
-121
-113
-104
-127
-109
85
-61
-120
54
83
-41
-80
80
-103
-113
121
97
76
116
-123
-66
-71
123
113
-82
96
-80
109
35
-67
122
95
106
50
-98
-104
-104
126
-97
62
116
63
99
98
-80
97
-80
76
-75
49
-128
-71
-114
101
123
-111
-128
-118
102
0
100
-106
-87
110
59
-101
112
63
84
114
-89
121
90
97
-48
126
-114
-56
85
-76
-127
-112
91
36
-70
105
-75
114
-86
-113
-116
-124
110
-81
83
101
-47
95
100
-62
78
-104
103
119
-91
70
124
105
111
84
97
88
-85
52
-114
-99
93
44
108
109
-79
-83
-43
87
-122
-107
111
-103
118
116
-120
-72
116
102
-83
72
85
108
-120
-104
-85
119
104
86
90
-71
-87
55
-123
107
-56
126
84
92
-85
-84
96
-85
102
115
-85
83
-48
-56
-111
-67
103
78
-115
89
112
120
65
122
96
-68
-88
-79
-87
120
-107
41
126
-94
-89
53
-66
98
102
-107
111
-89
-50
112
117
-125
-106
-93
-87
112
-74
125
-85
87
118
60
-100
-108
-97
-127
121
115
30
114
-68
-110
-85
-59
-107
-72
80
-84
62
-107
111
-84
-73
91
-83
-82
103
85
109
-101
-115
39
73
115
116
-93
-91
103
-72
-51
-124
-113
-107
-108
-86
81
-126
112
63
-99
117
-106
-105
-116
-126
112
-78
-66
-78
-81
-111
111
125
109
95
68
-126
-123
-70
109
-113
-105
58
107
-119
-99
99
102
-66
-115
-109
102
81
-99
-115
-87
-124
123
91
-79
-77
85
-87
-70
112
55
99
-51
-105
-88
65
98
-65
-28
113
116
96
112
99
-66
-94
-83
-96
99
116
-96
-90
-64
90
88
-111
-114
-112
112
75
-118
-103
-124
118
-121
-91
122
98
118
-106
-51
-40
-92
115
-109
-120
107
99
-127
37
-71
78
-119
79
108
-112
-127
-106
106
-128
71
111
60
78
105
96
-105
-120
-115
101
123
-74
93
-119
-92
113
110
122
82
-80
113
110
50
126
-112
56
-89
-61
-105
-111
97
-104
95
107
107
103
127
-94
119
-126
-113
117
-108
118
109
-88
-72
112
-100
101
-76
-125
-48
91
-127
118
-91
-103
118
115
-120
111
109
-123
-97
-112
-90
61
-123
-79
75
-74
-90
85
125
122
-94
-88
-100
107
-104
119
95
-94
116
113
-127
-122
-109
83
100
-121
-123
124
127
-63
99
111
-53
89
-116
-84
127
125
-119
-112
-86
-95
100
-89
-41
-104
114
64
-75
-123
-99
-74
119
96
70
-110
-116
-68
-84
46
113
-95
111
-105
-121
80
92
-77
94
-95
-79
112
72
-87
-90
97
118
-104
109
120
-116
-109
57
-82
74
-114
124
105
81
102
-77
93
-46
-108
110
-114
89
-97
100
78
-116
106
55
114
-126
115
119
76
85
-120
-75
90
119
-63
120
97
-124
77
-122
-127
69
-82
-83
-87
-119
111
104
-85
-122
-118
-115
95
-61
-96
-52
102
85
-108
-52
-120
97
-104
-68
-115
82
-43
-110
125
21
-99
59
108
-116
-92
-76
-76
-48
112
-79
120
-82
103
125
92
82
98
75
104
122
93
-92
63
70
-86
-124
119
-97
106
-109
113
-115
38
-118
118
-109
-127
-99
126
-87
91
-119
-95
-104
-66
122
80
-125
-98
-78
-77
-94
114
117
87
-109
-63
-112
-116
-86
-119
118
114
119
107
-70
85
125
108
91
-115
119
-95
-95
-116
116
-117
-88
-80
-78
73
-105
65
-84
-93
-82
-95
116
-64
65
-92
-87
85
107
124
-106
120
72
116
78
96
90
108
115
77
52
-90
-69
-90
97
-128
-98
103
103
103
52
-86
-114
-98
98
62
-125
121
112
-121
-118
-56
-109
-86
73
-124
-79
-87
-117
122
99
-98
-73
78
114
109
-73
-68
-117
72
122
-115
111
-116
-124
-120
-87
-86
-105
121
-103
95
-124
105
-72
62
77
-109
113
90
109
68
-124
66
-126
93
114
103
-97
-95
70
96
73
65
121
-124
-70
-101
-116
102
96
91
-115
108
88
-90
32
-84
-101
60
-123
-51
-108
91
99
73
-65
-125
-102
98
98
118
-69
107
-71
-89
-69
-76
-87
-81
94
-81
-74
-123
-116
76
-60
75
-122
-108
-82
110
-107
123
77
-126
-110
-76
108
-104
120
-114
78
119
-118
-125
79
101
-111
-100
-68
-107
-87
-48
-109
-83
-105
113
-126
75
123
-114
-83
-126
84
122
-93
-71
-83
-89
-127
103
-97
125
90
-86
-110
-112
100
-88
-85
-102
106
-84
-123
106
109
83
-89
127
-47
92
123
70
110
123
103
121
-88
110
-112
-71
-113
-99
82
-85
102
-117
92
-86
-115
-105
-73
123
99
83
-96
-94
89
-90
112
-90
125
104
-121
-103
66
-120
51
95
-83
-122
123
-73
-109
109
-83
116
-87
67
98
121
102
115
-61
87
-105
101
-124
107
-76
-111
95
92
-106
64
57
67
-58
119
-86
-87
-89
-106
-90
-80
119
83
-118
103
-95
33
83
-96
-94
-72
51
-118
-128
-114
111
83
-111
-96
-104
-40
-109
-123
78
117
-101
55
-83
112
126
121
82
-96
-90
-116
79
-85
-110
-84
121
98
119
-123
-110
-80
-126
55
84
-103
59
-80
-61
-88
-83
-105
-117
79
-98
107
84
-86
-82
-72
-60
-125
64
105
44
-98
120
69
-98
119
114
83
96
-76
90
-127
107
-114
-88
72
101
113
116
-88
127
121
77
67
-83
97
-92
118
-66
-116
-96
64
96
79
59
110
-69
127
-106
114
-80
-68
-106
102
119
-102
-121
-124
78
-100
-84
110
-53
-124
-99
-110
-85
104
127
117
115
110
115
-117
113
76
70
45
-90
-95
-81
-127
80
-115
-120
99
-101
95
-100
54
-81
-116
123
-81
125
-89
109
-75
-95
-98
97
123
121
-87
-50
-87
80
-74
-67
-121
-110
84
-71
-82
61
-94
-78
-70
-118
-114
117
-121
-103
86
-104
-121
110
44
-112
98
122
-75
-109
103
-60
-115
104
-102
-91
-110
-108
102
121
-116
-60
106
-126
74
95
-110
119
-82
-92
78
74
-51
81
-76
69
-114
-126
-100
113
113
103
-100
116
87
-119
109
-94
120
95
-111
73
-121
91
126
-88
112
-93
-58
-116
-123
94
73
106
-120
-92
122
100
-112
-117
104
-103
125
100
89
-121
87
120
-108
-110
79
-122
-105
115
96
127
86
-128
-62
-67
88
122
-115
113
-100
114
-121
-103
61
30
97
109
86
-81
91
-78
-71
-62
-75
-79
-111
96
-113
-99
102
77
105
-113
-108
-98
-117
-77
-117
94
-117
-101
-32
114
-84
124
122
90
-90
-117
-102
-80
-62
114
-111
114
-110
106
-73
116
117
102
121
111
-104
-60
-97
-95
98
-111
107
-107
-95
77
-67
-75
-1
95
126
-124
106
109
96
-103
54
-119
98
112
-113
92
-108
109
110
87
-112
77
-120
-121
-95
56
47
48
-117
-46
-28
71
85
79
-128
123
-84
-76
110
121
115
40
-128
-82
82
-87
118
-105
109
86
-65
78
-101
102
-92
109
-74
127
118
-65
64
118
89
114
102
45
-19
87
-92
79
-102
58
24
-106
-94
-83
-113
-79
-119
-110
-80
-128
-84
127
-101
59
80
64
-116
97
-89
126
69
-54
-48
69
-120
-82
-29
-33
-99
100
112
123
-118
126
123
-98
-49
-112
-92
126
120
118
126
69
73
-105
-101
-108
-118
98
-72
116
103
121
110
93
68
82
-6
95
120
-108
109
122
44
-70
-98
120
113
-97
-112
-35
-108
-78
84
114
79
101
113
110
-96
-108
-113
-127
73
118
-88
-126
96
109
105
-72
-113
-124
82
126
111
-57
-126
-93
-108
-72
-82
-114
103
-95
-117
75
94
89
-106
-116
-104
106
-111
-94
-83
-100
-123
-106
-125
115
-69
-98
109
72
73
-118
-57
-116
-125
-113
-70
-56
-74
-113
-116
94
-117
111
74
71
-112
-114
83
96
104
-124
125
116
-98
-96
122
-84
-124
-118
-84
-125
-126
-76
106
104
-83
102
-85
-80
104
126
111
-79
95
41
119
-101
-124
-128
95
93
76
102
-79
89
-110
89
63
-74
-45
101
71
76
-123
69
112
-116
-96
92
107
-128
-87
-99
-116
109
-59
86
-118
98
97
-127
105
-102
58
120
-88
-58
-66
68
-44
-62
115
-44
-127
120
117
-109
112
104
-116
72
118
-109
120
86
-123
109
-95
-92
84
100
126
-85
-73
-100
-40
-81
-89
-123
80
94
126
55
